export const defaultBrain = {"levels":[{"inputs":[0.4539531823582854,0,0,0,0],"outputs":[1,1,0,0,1,0],"biases":[-0.050062447966742835,-0.042473356558133925,-0.04570888006468977,0.12243242297514882,-0.024276442916920493,0.043068862321970505],"weights":[[-0.005254326545448135,0.07809662866834455,-0.2504529601016432,0.25146451023761074,0.3903637017951009,-0.1812798808619112],[-0.12130771949867504,-0.010219568427471008,-0.08862229955356077,0.09496232468842017,-0.07461173689075053,0.04411825453886903],[-0.09319343253738482,0.013852993544640174,-0.024370221211085397,0.017590137978943973,-0.27332576721189633,0.29872160540833154],[-0.014396257999379769,0.1500054954372836,0.16024321181574702,-0.19445812106570115,-0.015131580345293875,-0.15616381810451532],[-0.017768237117867507,0.16444969870522286,-0.012553258899578715,-0.04905738101199766,0.029596349066643414,-0.022369384240501368]]},{"inputs":[1,1,0,0,1,0],"outputs":[1,0,0,0],"biases":[-0.05915418990586516,0.1504773611993776,-0.10579456526254721,0.156810380942015],"weights":[[0.21163964137178212,0.1828893345456637,-0.2797306998489862,0.024788532124338063],[0.12727180653296788,-0.14923513026952903,0.095170405094754,-0.049805031917866685],[0.015971346702767043,0.08952513224552831,-0.3457948402037793,-0.07522005938623448],[0.024744597547719495,0.04667881348582727,0.2412137952370765,0.003725181318582356],[-0.05490031588651855,-0.16288690099276382,-0.12835300042048695,-0.3521732900171656],[-0.06612212410576405,0.0324170597735924,-0.33643488616699235,0.27043799758950426]]}]}